digraph Tree {
node [shape=box, style="filled, rounded", color="black", fontname=helvetica] ;
edge [fontname=helvetica] ;
0 [label="odor_n <= 0.5\nentropy = 0.999\nsamples = 6499\nvalue = [3365, 3134]\nclass = 0", fillcolor="#e5813912"] ;
1 [label="bruises_f <= 0.5\nentropy = 0.66\nsamples = 3666\nvalue = [627, 3039]\nclass = 1", fillcolor="#399de5ca"] ;
0 -> 1 [labeldistance=2.5, labelangle=45, headlabel="True"] ;
3 [label="stalk-root_c <= 0.5\nentropy = 0.974\nsamples = 1054\nvalue = [627, 427]\nclass = 0", fillcolor="#e5813951"] ;
1 -> 3 ;
5 [label="entropy = 0.918\nsamples = 640\nvalue = [213, 427]\nclass = 1", fillcolor="#399de580"] ;
3 -> 5 ;
6 [label="entropy = 0.0\nsamples = 414\nvalue = [414, 0]\nclass = 0", fillcolor="#e58139ff"] ;
3 -> 6 ;
4 [label="entropy = 0.0\nsamples = 2612\nvalue = [0, 2612]\nclass = 1", fillcolor="#399de5ff"] ;
1 -> 4 ;
2 [label="spore-print-color_r <= 0.5\nentropy = 0.212\nsamples = 2833\nvalue = [2738, 95]\nclass = 0", fillcolor="#e58139f6"] ;
0 -> 2 [labeldistance=2.5, labelangle=-45, headlabel="False"] ;
7 [label="entropy = 0.102\nsamples = 2775\nvalue = [2738, 37]\nclass = 0", fillcolor="#e58139fc"] ;
2 -> 7 ;
8 [label="entropy = 0.0\nsamples = 58\nvalue = [0, 58]\nclass = 1", fillcolor="#399de5ff"] ;
2 -> 8 ;
}